{"learner":{"attributes":{"scikit_learn":"{\"_estimator_type\": \"classifier\"}"},"feature_names":[],"feature_types":[],"gradient_booster":{"model":{"cats":{"enc":[],"feature_segments":[],"sorted_idx":[]},"gbtree_model_param":{"num_parallel_tree":"1","num_trees":"30"},"iteration_indptr":[0,3,6,9,12,15,18,21,24,27,30],"tree_info":[0,1,2,0,1,2,0,1,2,0,1,2,0,1,2,0,1,2,0,1,2,0,1,2,0,1,2,0,1,2],"trees":[{"base_weights":[-1.7569286E-8,3.7923116E-2,-6.492449E-3,1.6846525E-2,1.4258102E-1,1.4141987E-2,-1.8883482E-2,9.046961E-3,-1.16204005E-2,5.635821E-2,-1.2213533E-2,-7.051558E-3,9.605116E-3,-1.2285852E-2,-1.3935192E-3],"categories":[],"categories_nodes":[],"categories_segments":[],"categories_sizes":[],"default_left":[0,0,0,0,0,0,0,0,0,0,0,0,0,0,0],"id":0,"left_children":[1,3,5,7,9,11,13,-1,-1,-1,-1,-1,-1,-1,-1],"loss_changes":[4.808596E0,6.2948527E0,4.263861E0,1.7599413E0,3.9782095E0,4.2114506E0,3.2738843E0,0E0,0E0,0E0,0E0,0E0,0E0,0E0,0E0],"parents":[2147483647,0,0,1,1,2,2,3,3,4,4,5,5,6,6],"right_children":[2,4,6,8,10,12,14,-1,-1,-1,-1,-1,-1,-1,-1],"split_conditions":[-1.200439E0,1E0,-4.2504412E-1,1E0,1E0,-2.313223E-1,4.167926E-1,9.046961E-3,-1.16204005E-2,5.635821E-2,-1.2213533E-2,-7.051558E-3,9.605116E-3,-1.2285852E-2,-1.3935192E-3],"split_indices":[14,4,15,3,13,14,15,0,0,0,0,0,0,0,0],"split_type":[0,0,0,0,0,0,0,0,0,0,0,0,0,0,0],"sum_hessian":[1.9528201E4,2.853821E3,1.6674379E4,2.3764077E3,4.7741327E2,6.2561123E3,1.0418268E4,1.917647E3,4.5876083E2,3.8281882E2,9.4594444E1,2.0140178E3,4.242094E3,4.084881E3,6.3333867E3],"tree_param":{"num_deleted":"0","num_feature":"16","num_nodes":"15","size_leaf_vector":"1"}},{"base_weights":[-5.833229E-8,4.9662623E-3,-2.4562437E-2,-2.4760388E-2,1.0063805E-2,-5.387381E-2,3.7665642E-3,-1.1935723E-2,1.7206723E-2,3.7057712E-3,-1.2419043E-2,-2.2948708E-2,1.1567943E-2,3.059644E-2,-6.709858E-3],"categories":[],"categories_nodes":[],"categories_segments":[],"categories_sizes":[],"default_left":[0,0,0,0,0,0,0,0,0,0,0,0,0,0,0],"id":1,"left_children":[1,3,5,7,9,11,13,-1,-1,-1,-1,-1,-1,-1,-1],"loss_changes":[2.3973649E0,2.4774535E0,2.7448516E0,2.9551263E0,1.6441951E0,3.399984E0,4.319084E0,0E0,0E0,0E0,0E0,0E0,0E0,0E0,0E0],"parents":[2147483647,0,0,1,1,2,2,3,3,4,4,5,5,6,6],"right_children":[2,4,6,8,10,12,14,-1,-1,-1,-1,-1,-1,-1,-1],"split_conditions":[1E0,-1.200439E0,2.37084E-2,1.2070045E0,1.5786308E0,1E0,3.8075137E-1,-1.1935723E-2,1.7206723E-2,3.7057712E-3,-1.2419043E-2,-2.2948708E-2,1.1567943E-2,3.059644E-2,-6.709858E-3],"split_indices":[7,14,14,15,15,11,14,0,0,0,0,0,0,0,0],"split_type":[0,0,0,0,0,0,0,0,0,0,0,0,0,0,0],"sum_hessian":[1.9651004E4,1.6346639E4,3.3043645E3,2.3922456E3,1.3954394E4,1.6235808E3,1.6807838E3,2.0226608E3,3.6958472E2,1.3360912E4,5.9348065E2,1.3044956E3,3.1908524E2,3.526026E2,1.3281812E3],"tree_param":{"num_deleted":"0","num_feature":"16","num_nodes":"15","size_leaf_vector":"1"}},{"base_weights":[-5.8461584E-8,-5.5660486E-2,3.462158E-3,1.0769524E-2,-1.0282232E-1,3.0203382E-3,3.668226E-1,8.6790174E-2,-1.0587299E-2,-4.3034285E-2,1.8841015E-2,-3.0729573E-3,2.9212302E-3,2.321735E-2,1.6114126E-1],"categories":[],"categories_nodes":[],"categories_segments":[],"categories_sizes":[],"default_left":[0,0,0,0,0,0,0,0,0,0,0,0,0,0,0],"id":2,"left_children":[1,3,5,7,9,11,13,-1,-1,-1,-1,-1,-1,-1,-1],"loss_changes":[3.7481756E0,3.5695157E0,2.9385357E0,6.088704E0,4.4915338E0,1.6295784E0,1.0542216E0,0E0,0E0,0E0,0E0,0E0,0E0,0E0,0E0],"parents":[2147483647,0,0,1,1,2,2,3,3,4,4,5,5,6,6],"right_children":[2,4,6,8,10,12,14,-1,-1,-1,-1,-1,-1,-1,-1],"split_conditions":[-1.5232389E0,-2.313223E-1,1.8089234E0,-1.7254117E0,1E0,-4.2504412E-1,-6.137082E-1,8.6790174E-2,-1.0587299E-2,-4.3034285E-2,1.8841015E-2,-3.0729573E-3,2.9212302E-3,2.321735E-2,1.6114126E-1],"split_indices":[15,14,14,15,13,15,15,0,0,0,0,0,0,0,0],"split_type":[0,0,0,0,0,0,0,0,0,0,0,0,0,0,0],"sum_hessian":[1.944798E4,1.137989E3,1.8309992E4,4.727984E2,6.651906E2,1.8288762E4,2.1229488E1,6.634215E1,4.0645624E2,5.3427545E2,1.3091518E2,6.1481484E3,1.2140613E4,8.403339E0,1.2826149E1],"tree_param":{"num_deleted":"0","num_feature":"16","num_nodes":"15","size_leaf_vector":"1"}},{"base_weights":[-7.526252E-6,3.0033201E-2,-5.1810443E-3,1.2188963E-2,1.1761266E-1,1.1142781E-2,-1.50285885E-2,-1.6063375E-2,6.5105367E-3,6.0715284E-2,8.980678E-3,-3.8146526E-2,4.659186E-3,-6.476376E-3,9.413192E-3],"categories":[],"categories_nodes":[],"categories_segments":[],"categories_sizes":[],"default_left":[0,0,0,0,0,0,0,0,0,0,0,0,0,0,0],"id":3,"left_children":[1,3,5,7,9,11,13,-1,-1,-1,-1,-1,-1,-1,-1],"loss_changes":[3.0351791E0,4.4824657E0,2.678286E0,1.4923053E0,3.602622E0,3.806385E0,3.1638727E0,0E0,0E0,0E0,0E0,0E0,0E0,0E0,0E0],"parents":[2147483647,0,0,1,1,2,2,3,3,4,4,5,5,6,6],"right_children":[2,4,6,8,10,12,14,-1,-1,-1,-1,-1,-1,-1,-1],"split_conditions":[-1.200439E0,1E0,-4.2504412E-1,1E0,4E0,-1.0984267E0,7E0,-1.6063375E-2,6.5105367E-3,6.0715284E-2,8.980678E-3,-3.8146526E-2,4.659186E-3,-6.476376E-3,9.413192E-3],"split_indices":[14,4,15,1,1,14,1,0,0,0,0,0,0,0,0],"split_type":[0,0,0,0,0,0,0,0,0,0,0,0,0,0,0],"sum_hessian":[1.9527357E4,2.8681653E3,1.6659191E4,2.38364E3,4.8452533E2,6.268332E3,1.039086E4,3.0076025E2,2.0828796E3,2.4567918E2,2.3884615E2,1.919019E2,6.07643E3,9.104501E3,1.2863585E3],"tree_param":{"num_deleted":"0","num_feature":"16","num_nodes":"15","size_leaf_vector":"1"}},{"base_weights":[1.5633693E-6,4.2477963E-3,-2.1059237E-2,-1.0164762E-1,5.078735E-3,-4.6143524E-2,3.0460898E-3,-5.815992E-2,5.5368368E-2,1.4269185E-2,9.0006576E-4,-1.1756007E-2,-8.2195796E-2,2.5670806E-2,-5.7525155E-3],"categories":[],"categories_nodes":[],"categories_segments":[],"categories_sizes":[],"default_left":[0,0,0,0,0,0,0,0,0,0,0,0,0,0,0],"id":4,"left_children":[1,3,5,7,9,11,13,-1,-1,-1,-1,-1,-1,-1,-1],"loss_changes":[1.7574862E0,1.439623E0,1.9939818E0,3.3978662E0,1.4329323E0,2.5506694E0,3.0868819E0,0E0,0E0,0E0,0E0,0E0,0E0,0E0,0E0],"parents":[2147483647,0,0,1,1,2,2,3,3,4,4,5,5,6,6],"right_children":[2,4,6,8,10,12,14,-1,-1,-1,-1,-1,-1,-1,-1],"split_conditions":[1E0,-1.7254117E0,2.37084E-2,8.398067E-1,-1.5359595E0,-2.729774E-2,3.8075137E-1,-5.815992E-2,5.5368368E-2,1.4269185E-2,9.0006576E-4,-1.1756007E-2,-8.2195796E-2,2.5670806E-2,-5.7525155E-3],"split_indices":[7,15,14,14,15,14,14,0,0,0,0,0,0,0,0],"split_type":[0,0,0,0,0,0,0,0,0,0,0,0,0,0,0],"sum_hessian":[1.9650293E4,1.6353862E4,3.2964316E3,1.26381516E2,1.622748E4,1.6149655E3,1.6814662E3,9.5827705E1,3.0553812E1,7.5585205E2,1.5471629E4,1.5682532E3,4.6712322E1,3.561121E2,1.3253541E3],"tree_param":{"num_deleted":"0","num_feature":"16","num_nodes":"15","size_leaf_vector":"1"}},{"base_weights":[5.973635E-6,-4.6509713E-2,2.8786047E-3,-1.1972581E-2,-1.1585222E-1,2.4994446E-3,3.0525523E-1,6.375693E-2,-1.4023526E-2,-2.3097439E-2,-7.903063E-2,8.121212E-3,-3.0328723E-4,1.461452E-1,1.4586064E-2],"categories":[],"categories_nodes":[],"categories_segments":[],"categories_sizes":[],"default_left":[0,0,0,0,0,0,0,0,0,0,0,0,0,0,0],"id":5,"left_children":[1,3,5,7,9,11,13,-1,-1,-1,-1,-1,-1,-1,-1],"loss_changes":[2.5988386E0,2.7078161E0,2.099366E0,5.913435E0,2.1361046E0,1.5781444E0,1.0468152E0,0E0,0E0,0E0,0E0,0E0,0E0,0E0,0E0],"parents":[2147483647,0,0,1,1,2,2,3,3,4,4,5,5,6,6],"right_children":[2,4,6,8,10,12,14,-1,-1,-1,-1,-1,-1,-1,-1],"split_conditions":[-1.5232389E0,5.847759E-1,1.8089234E0,-1.7254117E0,1E0,1E0,1E0,6.375693E-2,-1.4023526E-2,-2.3097439E-2,-7.903063E-2,8.121212E-3,-3.0328723E-4,1.461452E-1,1.4586064E-2],"split_indices":[15,14,14,15,12,1,0,0,0,0,0,0,0,0,0],"split_type":[0,0,0,0,0,0,0,0,0,0,0,0,0,0,0],"sum_hessian":[1.9447121E4,1.1302424E3,1.8316879E4,7.552506E2,3.7499182E2,1.8294947E4,2.1932375E1,1.0060704E2,6.5464355E2,2.980363E2,7.695552E1,2.2861558E3,1.6008791E4,1.2309521E1,9.622853E0],"tree_param":{"num_deleted":"0","num_feature":"16","num_nodes":"15","size_leaf_vector":"1"}},{"base_weights":[-2.731768E-7,2.5304006E-2,-4.373222E-3,1.0089413E-2,9.930847E-2,-6.106166E-3,6.734725E-2,-4.076662E-4,1.7040158E-2,4.4187706E-2,-8.966019E-3,2.7775792E-3,-4.7299564E-3,3.0649766E-2,-2.7487809E-2],"categories":[],"categories_nodes":[],"categories_segments":[],"categories_sizes":[],"default_left":[0,0,0,0,0,0,0,0,0,0,0,0,0,0,0],"id":6,"left_children":[1,3,5,7,9,11,13,-1,-1,-1,-1,-1,-1,-1,-1],"loss_changes":[2.1608431E0,3.238843E0,2.0698526E0,1.2770156E0,3.0456386E0,2.4133835E0,2.184193E0,0E0,0E0,0E0,0E0,0E0,0E0,0E0,0E0],"parents":[2147483647,0,0,1,1,2,2,3,3,4,4,5,5,6,6],"right_children":[2,4,6,8,10,12,14,-1,-1,-1,-1,-1,-1,-1,-1],"split_conditions":[-1.200439E0,1E0,1.6503745E0,1E0,7.510919E-1,-4.2504412E-1,1E0,-4.076662E-4,1.7040158E-2,4.4187706E-2,-8.966019E-3,2.7775792E-3,-4.7299564E-3,3.0649766E-2,-2.7487809E-2],"split_indices":[14,4,15,6,15,15,11,0,0,0,0,0,0,0,0],"split_type":[0,0,0,0,0,0,0,0,0,0,0,0,0,0,0],"sum_hessian":[1.952587E4,2.8764377E3,1.6649432E4,2.3868591E3,4.8957855E2,1.6257524E4,3.919071E2,1.9178014E3,4.6905786E2,3.568881E2,1.3269046E2,6.2758486E3,9.981676E3,3.217862E2,7.012089E1],"tree_param":{"num_deleted":"0","num_feature":"16","num_nodes":"15","size_leaf_vector":"1"}},{"base_weights":[-5.6262655E-7,5.7363283E-4,-1.4318688E-1,4.216421E-3,-1.7525448E-2,-4.9720887E-2,-5.1348454E-1,2.5611678E-3,-3.969592E-3,-7.6227016E-3,1.538601E-2,2.3158358E-2,-1.04288824E-1,-1.8805587E-1,7.201665E-2],"categories":[],"categories_nodes":[],"categories_segments":[],"categories_sizes":[],"default_left":[0,0,0,0,0,0,0,0,0,0,0,0,0,0,0],"id":7,"left_children":[1,3,5,7,9,11,13,-1,-1,-1,-1,-1,-1,-1,-1],"loss_changes":[1.6156459E0,1.2905123E0,2.6909683E0,1.2285365E0,1.7803885E0,2.4381971E0,1.4926467E0,0E0,0E0,0E0,0E0,0E0,0E0,0E0,0E0],"parents":[2147483647,0,0,1,1,2,2,3,3,4,4,5,5,6,6],"right_children":[2,4,6,8,10,12,14,-1,-1,-1,-1,-1,-1,-1,-1],"split_conditions":[1.758594E0,1E0,1E0,1E0,1.4008741E0,6E0,7E0,2.5611678E-3,-3.969592E-3,-7.6227016E-3,1.538601E-2,2.3158358E-2,-1.04288824E-1,-1.8805587E-1,7.201665E-2],"split_indices":[15,7,5,4,14,1,1,0,0,0,0,0,0,0,0],"split_type":[0,0,0,0,0,0,0,0,0,0,0,0,0,0,0],"sum_hessian":[1.9649012E4,1.9571523E4,7.748832E1,1.629301E4,3.2785144E3,6.2777153E1,1.4711167E1,1.3059542E4,3.233468E3,2.9420818E3,3.3643277E2,4.454213E1,1.8235023E1,1.2933478E1,1.7776892E0],"tree_param":{"num_deleted":"0","num_feature":"16","num_nodes":"15","size_leaf_vector":"1"}},{"base_weights":[8.677424E-7,-3.7768595E-2,2.3161338E-3,-1.716348E-2,-1.2135682E-1,2.0896327E-3,3.8623342E-1,2.0974074E-2,-1.1935311E-2,-5.068835E-2,3.2782376E-2,4.6201222E-4,3.906712E-2,1.812891E-1,2.2507621E-2],"categories":[],"categories_nodes":[],"categories_segments":[],"categories_sizes":[],"default_left":[0,0,0,0,0,0,0,0,0,0,0,0,0,0,0],"id":8,"left_children":[1,3,5,7,9,11,13,-1,-1,-1,-1,-1,-1,-1,-1],"loss_changes":[1.7006191E0,1.9325892E0,1.5926324E0,1.7801062E0,2.4555168E0,1.2895324E0,6.875191E-1,0E0,0E0,0E0,0E0,0E0,0E0,0E0,0E0],"parents":[2147483647,0,0,1,1,2,2,3,3,4,4,5,5,6,6],"right_children":[2,4,6,8,10,12,14,-1,-1,-1,-1,-1,-1,-1,-1],"split_conditions":[-1.5232389E0,1E0,1.8599294E0,-1.6989723E0,1E0,1.758594E0,1E0,2.0974074E-2,-1.1935311E-2,-5.068835E-2,3.2782376E-2,4.6201222E-4,3.906712E-2,1.812891E-1,2.2507621E-2],"split_indices":[15,10,14,15,7,15,0,0,0,0,0,0,0,0,0],"split_type":[0,0,0,0,0,0,0,0,0,0,0,0,0,0,0],"sum_hessian":[1.9445568E4,1.1222781E3,1.832329E4,9.0130505E2,2.2097302E2,1.831349E4,9.799046E0,1.8542761E2,7.1587744E2,1.8338762E2,3.75854E1,1.8236283E4,7.720693E1,5.2080116E0,4.591034E0],"tree_param":{"num_deleted":"0","num_feature":"16","num_nodes":"15","size_leaf_vector":"1"}},{"base_weights":[1.1939525E-7,-3.986193E-3,2.0019196E-2,8.69607E-3,-1.0462903E-2,8.263846E-2,8.733613E-3,-5.412357E-4,1.7612448E-2,3.0091791E-3,-7.397888E-3,3.5694085E-2,-2.016254E-2,-2.017955E-2,5.9722955E-3],"categories":[],"categories_nodes":[],"categories_segments":[],"categories_sizes":[],"default_left":[0,0,0,0,0,0,0,0,0,0,0,0,0,0,0],"id":9,"left_children":[1,3,5,7,9,11,13,-1,-1,-1,-1,-1,-1,-1,-1],"loss_changes":[1.5582428E0,1.3376294E0,2.290749E0,2.8911357E0,3.1364355E0,2.7037752E0,2.3353927E0,0E0,0E0,0E0,0E0,0E0,0E0,0E0,0E0],"parents":[2147483647,0,0,1,1,2,2,3,3,4,4,5,5,6,6],"right_children":[2,4,6,8,10,12,14,-1,-1,-1,-1,-1,-1,-1,-1],"split_conditions":[1E0,-5.5986595E-1,-1.200439E0,-7.6830447E-1,-2.8232846E-1,1E0,1E0,-5.412357E-4,1.7612448E-2,3.0091791E-3,-7.397888E-3,3.5694085E-2,-2.016254E-2,-2.017955E-2,5.9722955E-3],"split_indices":[4,15,14,15,14,13,1,0,0,0,0,0,0,0,0],"split_type":[0,0,0,0,0,0,0,0,0,0,0,0,0,0,0],"sum_hessian":[1.9524291E4,1.6282774E4,3.2415176E3,5.504293E3,1.0778481E4,4.9402798E2,2.7474895E3,4.5499756E3,9.5431714E2,4.4111357E3,6.3673457E3,3.977654E2,9.6262596E1,3.5153696E2,2.3959526E3],"tree_param":{"num_deleted":"0","num_feature":"16","num_nodes":"15","size_leaf_vector":"1"}},{"base_weights":[-1.1398163E-5,1.9437782E-1,-3.0273374E-4,-5.820564E-2,4.9971625E-1,1.0459424E-3,-4.2353027E-2,1.2030533E-1,-8.280345E-2,1.9749896E-1,-6.1986107E-2,-5.138762E-4,6.103665E-3,-2.6945535E-3,-4.9093056E-2],"categories":[],"categories_nodes":[],"categories_segments":[],"categories_sizes":[],"default_left":[0,0,0,0,0,0,0,0,0,0,0,0,0,0,0],"id":10,"left_children":[1,3,5,7,9,11,13,-1,-1,-1,-1,-1,-1,-1,-1],"loss_changes":[1.1128387E0,2.2969866E0,1.11278E0,1.8099506E0,1.6392047E0,1.012327E0,2.4666088E0,0E0,0E0,0E0,0E0,0E0,0E0,0E0,0E0],"parents":[2147483647,0,0,1,1,2,2,3,3,4,4,5,5,6,6],"right_children":[2,4,6,8,10,12,14,-1,-1,-1,-1,-1,-1,-1,-1],"split_conditions":[-1.7615066E0,4E0,1.6205497E0,1E0,1E0,1.2070045E0,1E0,1.2030533E-1,-8.280345E-2,1.9749896E-1,-6.1986107E-2,-5.138762E-4,6.103665E-3,-2.6945535E-3,-4.9093056E-2],"split_indices":[14,1,15,2,5,15,10,0,0,0,0,0,0,0,0],"split_type":[0,0,0,0,0,0,0,0,0,0,0,0,0,0,0],"sum_hessian":[1.9648143E4,2.8406105E1,1.9619736E4,1.5988991E1,1.2417113E1,1.9010973E4,6.087625E2,4.8731775E0,1.1115813E1,1.019558E1,2.2215335E0,1.663406E4,2.3769138E3,4.782528E2,1.3050974E2],"tree_param":{"num_deleted":"0","num_feature":"16","num_nodes":"15","size_leaf_vector":"1"}},{"base_weights":[1.1396622E-5,1.03853345E-2,-6.233278E-3,3.1526E-2,-1.031696E-2,-3.1050712E-2,6.2406124E-3,1.8166054E-2,-2.0381229E-3,-6.7046E-3,1.0805764E-2,5.927414E-2,-1.0217912E-2,-7.472596E-3,7.591932E-3],"categories":[],"categories_nodes":[],"categories_segments":[],"categories_sizes":[],"default_left":[0,0,0,0,0,0,0,0,0,0,0,0,0,0,0],"id":11,"left_children":[1,3,5,7,9,11,13,-1,-1,-1,-1,-1,-1,-1,-1],"loss_changes":[1.2597672E0,3.1984026E0,3.7580876E0,4.0221148E0,2.059463E0,2.8002648E0,4.7988815E0,0E0,0E0,0E0,0E0,0E0,0E0,0E0,0E0],"parents":[2147483647,0,0,1,1,2,2,3,3,4,4,5,5,6,6],"right_children":[2,4,6,8,10,12,14,-1,-1,-1,-1,-1,-1,-1,-1],"split_conditions":[3E0,2.37084E-2,-5.5986595E-1,2.4174207E-1,1E0,-1.6594943E0,-3.8434073E-1,1.8166054E-2,-2.0381229E-3,-6.7046E-3,1.0805764E-2,5.927414E-2,-1.0217912E-2,-7.472596E-3,7.591932E-3],"split_indices":[1,14,15,15,12,14,14,0,0,0,0,0,0,0,0],"split_type":[0,0,0,0,0,0,0,0,0,0,0,0,0,0,0],"sum_hessian":[1.9444293E4,7.3062144E3,1.2138078E4,3.6145764E3,3.6916382E3,4.0596704E3,8.0784077E3,2.0563184E3,1.5582579E3,2.9310706E3,7.605676E2,5.1894897E1,4.0077756E3,3.0671194E3,5.0112886E3],"tree_param":{"num_deleted":"0","num_feature":"16","num_nodes":"15","size_leaf_vector":"1"}},{"base_weights":[-7.660204E-6,3.752168E-3,-1.8897504E-2,2.6091984E-2,-1.249394E-4,1.6466257E-1,-2.6695231E-2,1.2290442E-2,-1.1138597E-2,-4.039472E-3,2.1826043E-3,6.125605E-2,-1.9282852E-1,-1.1060747E-2,1.4217154E-2],"categories":[],"categories_nodes":[],"categories_segments":[],"categories_sizes":[],"default_left":[0,0,0,0,0,0,0,0,0,0,0,0,0,0,0],"id":12,"left_children":[1,3,5,7,9,11,13,-1,-1,-1,-1,-1,-1,-1,-1],"loss_changes":[1.3866775E0,1.4103731E0,4.643472E0,2.266281E0,1.3699635E0,4.350453E0,2.345763E0,0E0,0E0,0E0,0E0,0E0,0E0,0E0,0E0],"parents":[2147483647,0,0,1,1,2,2,3,3,4,4,5,5,6,6],"right_children":[2,4,6,8,10,12,14,-1,-1,-1,-1,-1,-1,-1,-1],"split_conditions":[1E0,-1.200439E0,-1.5894667E0,1E0,-1.2931003E-1,1.5028864E0,1.3106359E0,1.2290442E-2,-1.1138597E-2,-4.039472E-3,2.1826043E-3,6.125605E-2,-1.9282852E-1,-1.1060747E-2,1.4217154E-2],"split_indices":[5,14,15,3,14,14,15,0,0,0,0,0,0,0,0],"split_type":[0,0,0,0,0,0,0,0,0,0,0,0,0,0,0],"sum_hessian":[1.9522465E4,1.628242E4,3.2400461E3,2.4070894E3,1.387533E4,1.3121039E2,3.1088357E3,1.9488633E3,4.5822598E2,4.950535E3,8.924795E3,1.2579949E2,5.4109025E0,2.7339014E3,3.7493433E2],"tree_param":{"num_deleted":"0","num_feature":"16","num_nodes":"15","size_leaf_vector":"1"}},{"base_weights":[1.9830813E-6,3.1892057E-3,-1.5873129E-2,1.3940776E-2,-2.2178136E-3,-1.3913049E-2,-2.4560522E-1,1.4685136E-1,3.939616E-3,1.342817E-3,-5.095803E-3,-1.169366E-3,-1.663681E-2,-1.1945806E-1,3.0950816E-2],"categories":[],"categories_nodes":[],"categories_segments":[],"categories_sizes":[],"default_left":[0,0,0,0,0,0,0,0,0,0,0,0,0,0,0],"id":13,"left_children":[1,3,5,7,9,11,13,-1,-1,-1,-1,-1,-1,-1,-1],"loss_changes":[9.942013E-1,9.513267E-1,1.4759531E0,2.099577E0,1.076525E0,1.3555623E0,1.5170276E0,0E0,0E0,0E0,0E0,0E0,0E0,0E0,0E0],"parents":[2147483647,0,0,1,1,2,2,3,3,4,4,5,5,6,6],"right_children":[2,4,6,8,10,12,14,-1,-1,-1,-1,-1,-1,-1,-1],"split_conditions":[1E0,1E0,1.7256362E0,-1.7615066E0,6.867882E-1,1E0,6E0,1.4685136E-1,3.939616E-3,1.342817E-3,-5.095803E-3,-1.169366E-3,-1.663681E-2,-1.1945806E-1,3.0950816E-2],"split_indices":[7,2,15,14,14,13,1,0,0,0,0,0,0,0,0],"split_type":[0,0,0,0,0,0,0,0,0,0,0,0,0,0,0],"sum_hessian":[1.964721E4,1.6362863E4,3.2843486E3,5.4748457E3,1.0888018E4,3.257615E3,2.6733488E1,8.268603E0,5.466577E3,7.4925996E3,3.3954175E3,2.625705E3,6.3191E2,1.8498663E1,8.234826E0],"tree_param":{"num_deleted":"0","num_feature":"16","num_nodes":"15","size_leaf_vector":"1"}},{"base_weights":[5.6936397E-6,-1.934779E-1,2.9364665E-4,-5.538108E-1,-2.0997118E-2,-3.383356E-3,1.4912513E-2,-3.7463695E-2,-1.9171068E-1,6.518403E-2,-1.00442655E-1,2.327326E-3,-3.0339581E-3,-1.8612552E-3,1.7823769E-2],"categories":[],"categories_nodes":[],"categories_segments":[],"categories_sizes":[],"default_left":[0,0,0,0,0,0,0,0,0,0,0,0,0,0,0],"id":14,"left_children":[1,3,5,7,9,11,13,-1,-1,-1,-1,-1,-1,-1,-1],"loss_changes":[1.083371E0,1.7842939E0,1.0437435E0,2.6070762E-1,1.6117136E0,1.1633513E0,3.6673865E0,0E0,0E0,0E0,0E0,0E0,0E0,0E0,0E0],"parents":[2147483647,0,0,1,1,2,2,3,3,4,4,5,5,6,6],"right_children":[2,4,6,8,10,12,14,-1,-1,-1,-1,-1,-1,-1,-1],"split_conditions":[-1.7615066E0,-2.0019771E-1,1E0,1E0,8.7463844E-1,3E0,6.3578206E-1,-3.7463695E-2,-1.9171068E-1,6.518403E-2,-1.00442655E-1,2.327326E-3,-3.0339581E-3,-1.8612552E-3,1.7823769E-2],"split_indices":[14,15,11,0,15,1,14,0,0,0,0,0,0,0,0],"split_type":[0,0,0,0,0,0,0,0,0,0,0,0,0,0,0],"sum_hessian":[1.9443137E4,2.7896353E1,1.941524E4,8.314831E0,1.9581524E1,1.5513887E4,3.9013535E3,1.7868758E0,6.5279546E0,1.1305141E1,8.276382E0,5.8421587E3,9.671728E3,2.6464084E3,1.254945E3],"tree_param":{"num_deleted":"0","num_feature":"16","num_nodes":"15","size_leaf_vector":"1"}},{"base_weights":[-8.041959E-6,2.6204885E-4,-2.3753017E-1,-3.034802E-3,1.6765144E-2,-3.7601334E-1,1.5158483E-1,-9.860884E-4,1.049047E-1,-1.5195408E-1,5.359865E-3,-1.505632E-1,-1.0173196E-3,-4.6937957E-2,1.9264458E-1],"categories":[],"categories_nodes":[],"categories_segments":[],"categories_sizes":[],"default_left":[0,0,0,0,0,0,0,0,0,0,0,0,0,0,0],"id":15,"left_children":[1,3,5,7,9,11,13,-1,-1,-1,-1,-1,-1,-1,-1],"loss_changes":[1.2524633E0,1.0610695E0,1.2519164E0,1.4468682E0,1.8799993E0,7.787957E-1,1.0877302E0,0E0,0E0,0E0,0E0,0E0,0E0,0E0,0E0],"parents":[2147483647,0,0,1,1,2,2,3,3,4,4,5,5,6,6],"right_children":[2,4,6,8,10,12,14,-1,-1,-1,-1,-1,-1,-1,-1],"split_conditions":[1.8089234E0,1E0,2E0,1.7579172E0,-1.7615066E0,1E0,1E0,-9.860884E-4,1.049047E-1,-1.5195408E-1,5.359865E-3,-1.505632E-1,-1.0173196E-3,-4.6937957E-2,1.9264458E-1],"split_indices":[14,4,2,14,14,13,11,0,0,0,0,0,0,0,0],"split_type":[0,0,0,0,0,0,0,0,0,0,0,0,0,0,0],"sum_hessian":[1.9521236E4,1.950006E4,2.1174984E1,1.6253824E4,3.2462373E3,1.564184E1,5.5331454E0,1.6243202E4,1.0621671E1,5.8524804E0,3.2403848E3,1.1433099E1,4.208741E0,3.81722E0,1.7159252E0],"tree_param":{"num_deleted":"0","num_feature":"16","num_nodes":"15","size_leaf_vector":"1"}},{"base_weights":[9.337558E-6,3.9942452E-4,-1.0068494E-1,3.013968E-3,-1.2643585E-2,-1.6266875E-2,-4.531498E-1,-2.2516694E-2,1.0846177E-3,-5.823817E-3,1.3799073E-2,2.9060973E-2,-8.810307E-2,-1.7025039E-1,7.1151756E-2],"categories":[],"categories_nodes":[],"categories_segments":[],"categories_sizes":[],"default_left":[0,0,0,0,0,0,0,0,0,0,0,0,0,0,0],"id":16,"left_children":[1,3,5,7,9,11,13,-1,-1,-1,-1,-1,-1,-1,-1],"loss_changes":[7.7177966E-1,6.674916E-1,2.248715E0,7.6584274E-1,1.2982988E0,1.9809138E0,1.2882178E0,0E0,0E0,0E0,0E0,0E0,0E0,0E0,0E0],"parents":[2147483647,0,0,1,1,2,2,3,3,4,4,5,5,6,6],"right_children":[2,4,6,8,10,12,14,-1,-1,-1,-1,-1,-1,-1,-1],"split_conditions":[1.758594E0,1E0,1E0,-1.7254117E0,1.4008741E0,6E0,7E0,-2.2516694E-2,1.0846177E-3,-5.823817E-3,1.3799073E-2,2.9060973E-2,-8.810307E-2,-1.7025039E-1,7.1151756E-2],"split_indices":[15,7,5,15,14,1,1,0,0,0,0,0,0,0,0],"split_type":[0,0,0,0,0,0,0,0,0,0,0,0,0,0,0],"sum_hessian":[1.9646373E4,1.9571549E4,7.482362E1,1.6304075E4,3.2674734E3,6.1209602E1,1.3614023E1,1.23694954E2,1.618038E4,2.9299275E3,3.3754578E2,4.3940178E1,1.7269423E1,1.1831981E1,1.7820418E0],"tree_param":{"num_deleted":"0","num_feature":"16","num_nodes":"15","size_leaf_vector":"1"}},{"base_weights":[-1.3626625E-6,-2.8581588E-2,1.7376019E-3,7.408578E-4,-8.821175E-2,1.441978E-3,2.3040903E-1,4.934724E-2,-7.7099074E-3,-1.050327E-1,-1.9814244E-2,2.6014898E-2,2.1578446E-4,9.997993E-2,-2.5271468E-2],"categories":[],"categories_nodes":[],"categories_segments":[],"categories_sizes":[],"default_left":[0,0,0,0,0,0,0,0,0,0,0,0,0,0,0],"id":17,"left_children":[1,3,5,7,9,11,13,-1,-1,-1,-1,-1,-1,-1,-1],"loss_changes":[9.6639454E-1,1.950078E0,1.2387428E0,3.2454276E0,2.1109388E0,1.1281304E0,7.937702E-1,0E0,0E0,0E0,0E0,0E0,0E0,0E0,0E0],"parents":[2147483647,0,0,1,1,2,2,3,3,4,4,5,5,6,6],"right_children":[2,4,6,8,10,12,14,-1,-1,-1,-1,-1,-1,-1,-1],"split_conditions":[-1.5232389E0,5.847759E-1,1.8089234E0,-1.7254117E0,-1.7567112E0,-1.4960767E0,1E0,4.934724E-2,-7.7099074E-3,-1.050327E-1,-1.9814244E-2,2.6014898E-2,2.1578446E-4,9.997993E-2,-2.5271468E-2],"split_indices":[15,14,14,15,15,15,12,0,0,0,0,0,0,0,0],"split_type":[0,0,0,0,0,0,0,0,0,0,0,0,0,0,0],"sum_hessian":[1.944256E4,1.1142474E3,1.8328312E4,7.476076E2,3.6663983E2,1.8305654E4,2.2659042E1,1.032076E2,6.444E2,2.7453081E1,3.3918677E2,1.5283592E2,1.8152818E4,1.7032112E1,5.6269293E0],"tree_param":{"num_deleted":"0","num_feature":"16","num_nodes":"15","size_leaf_vector":"1"}},{"base_weights":[-2.8393838E-6,1.1964372E-2,-3.943556E-3,-5.720434E-3,3.5100654E-2,1.2031216E-3,-3.0053448E-2,2.569244E-3,-2.1512333E-2,3.3174522E-2,-3.5471674E-3,4.5094853E-3,-1.9179456E-3,2.320877E-2,-1.3033374E-2],"categories":[],"categories_nodes":[],"categories_segments":[],"categories_sizes":[],"default_left":[0,0,0,0,0,0,0,0,0,0,0,0,0,0,0],"id":18,"left_children":[1,3,5,7,9,11,13,-1,-1,-1,-1,-1,-1,-1,-1],"loss_changes":[9.206605E-1,1.9789318E0,1.9735613E0,2.5850525E0,7.422537E0,1.2888916E0,3.4818401E0,0E0,0E0,0E0,0E0,0E0,0E0,0E0,0E0],"parents":[2147483647,0,0,1,1,2,2,3,3,4,4,5,5,6,6],"right_children":[2,4,6,8,10,12,14,-1,-1,-1,-1,-1,-1,-1,-1],"split_conditions":[-8.43396E-1,2.4174207E-1,1E0,-1.1862701E-1,8.070333E-1,-5.0398725E-1,-1.3776748E0,2.569244E-3,-2.1512333E-2,3.3174522E-2,-3.5471674E-3,4.5094853E-3,-1.9179456E-3,2.320877E-2,-1.3033374E-2],"split_indices":[14,15,5,15,15,15,15,0,0,0,0,0,0,0,0],"split_type":[0,0,0,0,0,0,0,0,0,0,0,0,0,0,0],"sum_hessian":[1.9520314E4,4.835073E3,1.4685241E4,2.7408145E3,2.0942588E3,1.22679795E4,2.4172612E3,2.2537954E3,4.8701913E2,8.0232E2,1.2919388E3,4.349335E3,7.918645E3,2.67417E2,2.1498442E3],"tree_param":{"num_deleted":"0","num_feature":"16","num_nodes":"15","size_leaf_vector":"1"}},{"base_weights":[3.6361794E-6,1.0989368E-3,-3.0404178E-2,5.110073E-4,1.4391321E-1,-1.9666496E-4,-1.4170524E-1,2.6856054E-4,-2.8051822E-2,1.2163297E-1,2.078548E-2,-8.550703E-3,3.85284E-2,-2.5344301E-2,-1.2726827E-1],"categories":[],"categories_nodes":[],"categories_segments":[],"categories_sizes":[],"default_left":[0,0,0,0,0,0,0,0,0,0,0,0,0,0,0],"id":19,"left_children":[1,3,5,7,9,11,13,-1,-1,-1,-1,-1,-1,-1,-1],"loss_changes":[6.5436685E-1,1.5922495E0,2.296633E0,6.823141E-1,1.4893395E0,1.9634326E0,2.321616E0,0E0,0E0,0E0,0E0,0E0,0E0,0E0,0E0],"parents":[2147483647,0,0,1,1,2,2,3,3,4,4,5,5,6,6],"right_children":[2,4,6,8,10,12,14,-1,-1,-1,-1,-1,-1,-1,-1],"split_conditions":[1.6067889E0,1.5926651E0,1E0,1.5786308E0,-9.454083E-1,1E0,1E0,2.6856054E-4,-2.8051822E-2,1.2163297E-1,2.078548E-2,-8.550703E-3,3.85284E-2,-2.5344301E-2,-1.2726827E-1],"split_indices":[15,15,10,15,14,3,8,0,0,0,0,0,0,0,0],"split_type":[0,0,0,0,0,0,0,0,0,0,0,0,0,0,0],"sum_hessian":[1.9645291E4,1.8963193E4,6.820973E2,1.8886445E4,7.674704E1,5.372795E2,1.4481783E2,1.8810568E4,7.587764E1,1.6053999E1,6.069304E1,4.4100784E2,9.627161E1,1.2150608E2,2.331175E1],"tree_param":{"num_deleted":"0","num_feature":"16","num_nodes":"15","size_leaf_vector":"1"}},{"base_weights":[-8.268088E-7,-1.6971055E-1,2.4584186E-4,-5.0730866E-1,-1.7603818E-2,3.475315E-3,-1.2605221E-2,-3.260993E-2,-1.7757732E-1,5.4084048E-2,-8.855994E-2,2.742242E-3,-7.651752E-3,-9.704003E-3,1.3442463E-2],"categories":[],"categories_nodes":[],"categories_segments":[],"categories_sizes":[],"default_left":[0,0,0,0,0,0,0,0,0,0,0,0,0,0,0],"id":20,"left_children":[1,3,5,7,9,11,13,-1,-1,-1,-1,-1,-1,-1,-1],"loss_changes":[8.1392056E-1,1.440129E0,8.0579567E-1,2.3007607E-1,1.1787547E0,2.5479102E0,4.421004E0,0E0,0E0,0E0,0E0,0E0,0E0,0E0,0E0],"parents":[2147483647,0,0,1,1,2,2,3,3,4,4,5,5,6,6],"right_children":[2,4,6,8,10,12,14,-1,-1,-1,-1,-1,-1,-1,-1],"split_conditions":[-1.7615066E0,-2.0019771E-1,1E0,1E0,8.7463844E-1,1.1627133E0,8.459639E-1,-3.260993E-2,-1.7757732E-1,5.4084048E-2,-8.855994E-2,2.742242E-3,-7.651752E-3,-9.704003E-3,1.3442463E-2],"split_indices":[14,15,10,0,15,15,15,0,0,0,0,0,0,0,0],"split_type":[0,0,0,0,0,0,0,0,0,0,0,0,0,0,0],"sum_hessian":[1.9440916E4,2.7218752E1,1.9413697E4,7.7290506E0,1.94897E1,1.5515404E4,3.8982927E3,1.7534585E0,5.975592E0,1.1583198E1,7.906503E0,1.2978866E4,2.5365383E3,2.90117E3,9.97123E2],"tree_param":{"num_deleted":"0","num_feature":"16","num_nodes":"15","size_leaf_vector":"1"}},{"base_weights":[9.27147E-7,-1.7693885E-2,2.5290994E-3,1.9864894E-1,-2.4741884E-2,-2.0642714E-3,2.0124584E-2,8.870148E-2,-5.9534527E-2,3.9979346E-2,-9.695543E-3,8.672814E-4,-2.2283927E-2,9.838523E-3,-8.834993E-3],"categories":[],"categories_nodes":[],"categories_segments":[],"categories_sizes":[],"default_left":[0,0,0,0,0,0,0,0,0,0,0,0,0,0,0],"id":21,"left_children":[1,3,5,7,9,11,13,-1,-1,-1,-1,-1,-1,-1,-1],"loss_changes":[8.732736E-1,3.7259812E0,1.3805248E0,3.0293422E0,2.8347092E0,4.847362E0,2.2220178E0,0E0,0E0,0E0,0E0,0E0,0E0,0E0,0E0],"parents":[2147483647,0,0,1,1,2,2,3,3,4,4,5,5,6,6],"right_children":[2,4,6,8,10,12,14,-1,-1,-1,-1,-1,-1,-1,-1],"split_conditions":[1E0,-1.6084881E0,1.0129393E0,1E0,-1.5766518E0,8.333035E-1,1E0,8.870148E-2,-5.9534527E-2,3.9979346E-2,-9.695543E-3,8.672814E-4,-2.2283927E-2,9.838523E-3,-8.834993E-3],"split_indices":[1,14,15,8,15,15,13,0,0,0,0,0,0,0,0],"split_type":[0,0,0,0,0,0,0,0,0,0,0,0,0,0,0],"sum_hessian":[1.9518805E4,2.4393892E3,1.7079414E4,7.610523E1,2.363284E3,1.3544462E4,3.5349526E3,6.13669E1,1.473833E1,1.073779E2,2.255906E3,1.2675656E4,8.688054E2,2.8156536E3,7.192991E2],"tree_param":{"num_deleted":"0","num_feature":"16","num_nodes":"15","size_leaf_vector":"1"}},{"base_weights":[9.485563E-6,3.3910986E-4,-8.645073E-2,2.5524322E-3,-1.0719955E-2,-1.2467888E-2,-4.138026E-1,-1.4757092E-2,1.0185923E-3,-5.36261E-3,1.2194438E-2,3.526197E-2,-6.2197622E-2,-1.5837365E-1,6.482787E-2],"categories":[],"categories_nodes":[],"categories_segments":[],"categories_sizes":[],"default_left":[0,0,0,0,0,0,0,0,0,0,0,0,0,0,0],"id":22,"left_children":[1,3,5,7,9,11,13,-1,-1,-1,-1,-1,-1,-1,-1],"loss_changes":[5.5991113E-1,4.7909123E-1,1.8019309E0,7.1143603E-1,1.2004457E0,1.5922908E0,1.1005089E0,0E0,0E0,0E0,0E0,0E0,0E0,0E0,0E0],"parents":[2147483647,0,0,1,1,2,2,3,3,4,4,5,5,6,6],"right_children":[2,4,6,8,10,12,14,-1,-1,-1,-1,-1,-1,-1,-1],"split_conditions":[1.758594E0,1E0,1E0,-1.6594943E0,7E0,5E0,7E0,-1.4757092E-2,1.0185923E-3,-5.36261E-3,1.2194438E-2,3.526197E-2,-6.2197622E-2,-1.5837365E-1,6.482787E-2],"split_indices":[15,7,5,14,1,1,1,0,0,0,0,0,0,0,0],"split_type":[0,0,0,0,0,0,0,0,0,0,0,0,0,0,0],"sum_hessian":[1.9644398E4,1.9570783E4,7.361633E1,1.6307771E4,3.2630107E3,6.0892475E1,1.2723859E1,2.6047177E2,1.60473E4,2.864629E3,3.9838174E2,3.6761925E1,2.413055E1,1.0909449E1,1.8144103E0],"tree_param":{"num_deleted":"0","num_feature":"16","num_nodes":"15","size_leaf_vector":"1"}},{"base_weights":[-1.05146355E-5,-3.0583723E-3,1.2076428E-2,1.0880353E-3,-2.0385617E-2,4.6495167E-3,1.0955164E-1,5.1405225E-3,-2.5627178E-3,9.532218E-3,-1.0341176E-2,5.069567E-3,-9.975771E-3,2.1718156E-2,9.1166526E-2],"categories":[],"categories_nodes":[],"categories_segments":[],"categories_sizes":[],"default_left":[0,0,0,0,0,0,0,0,0,0,0,0,0,0,0],"id":23,"left_children":[1,3,5,7,9,11,13,-1,-1,-1,-1,-1,-1,-1,-1],"loss_changes":[7.162323E-1,1.1155592E0,2.8339036E0,1.9364766E0,2.2037506E0,1.6900709E0,1.979337E0,0E0,0E0,0E0,0E0,0E0,0E0,0E0,0E0],"parents":[2147483647,0,0,1,1,2,2,3,3,4,4,5,5,6,6],"right_children":[2,4,6,8,10,12,14,-1,-1,-1,-1,-1,-1,-1,-1],"split_conditions":[1E0,1.0948373E0,1.5028864E0,3E0,-9.879821E-1,6E0,1E0,5.1405225E-3,-2.5627178E-3,9.532218E-3,-1.0341176E-2,5.069567E-3,-9.975771E-3,2.1718156E-2,9.1166526E-2],"split_indices":[11,14,14,1,15,1,7,0,0,0,0,0,0,0,0],"split_type":[0,0,0,0,0,0,0,0,0,0,0,0,0,0,0],"sum_hessian":[1.9440078E4,1.5525817E4,3.9142615E3,1.252865E4,2.997167E3,3.638111E3,2.7615027E2,4.6986235E3,7.8300264E3,6.36992E2,2.360175E3,2.7499482E3,8.881628E2,2.3297688E2,4.3173374E1],"tree_param":{"num_deleted":"0","num_feature":"16","num_nodes":"15","size_leaf_vector":"1"}},{"base_weights":[-2.4937592E-7,2.0954869E-4,-1.9347456E-1,4.595986E-5,2.3219092E-1,-3.8611525E-1,5.710578E-2,-8.2556607E-4,4.205768E-3,1.7217205E-1,-9.165931E-2,-1.8263228E-1,7.162023E-2,7.631886E-2,-1.4282636E-1],"categories":[],"categories_nodes":[],"categories_segments":[],"categories_sizes":[],"default_left":[0,0,0,0,0,0,0,0,0,0,0,0,0,0,0],"id":24,"left_children":[1,3,5,7,9,11,13,-1,-1,-1,-1,-1,-1,-1,-1],"loss_changes":[7.9231983E-1,7.399556E-1,1.0427029E0,7.618423E-1,2.7000835E0,1.8263878E0,1.179478E0,0E0,0E0,0E0,0E0,0E0,0E0,0E0,0E0],"parents":[2147483647,0,0,1,1,2,2,3,3,4,4,5,5,6,6],"right_children":[2,4,6,8,10,12,14,-1,-1,-1,-1,-1,-1,-1,-1],"split_conditions":[1.8089234E0,1.7579172E0,1E0,1E0,3.6175394E-1,7E0,1E0,-8.2556607E-4,4.205768E-3,1.7217205E-1,-9.165931E-2,-1.8263228E-1,7.162023E-2,7.631886E-2,-1.4282636E-1],"split_indices":[14,14,0,4,15,1,12,0,0,0,0,0,0,0,0],"split_type":[0,0,0,0,0,0,0,0,0,0,0,0,0,0,0],"sum_hessian":[1.951782E4,1.9497676E4,2.0143812E1,1.9484936E4,1.2740205E1,1.108275E1,9.061061E0,1.6235024E4,3.2499124E3,7.7487035E0,4.991502E0,8.190037E0,2.8927135E0,6.9954953E0,2.065566E0],"tree_param":{"num_deleted":"0","num_feature":"16","num_nodes":"15","size_leaf_vector":"1"}},{"base_weights":[5.797425E-6,6.9383415E-3,-3.5201383E-3,2.9762654E-2,-2.4678342E-3,-2.0064763E-3,-3.797067E-2,5.725087E-3,4.4484504E-2,-3.889268E-3,1.5204402E-2,-7.9359027E-4,4.443751E-2,-6.816918E-2,-5.4994104E-3],"categories":[],"categories_nodes":[],"categories_segments":[],"categories_sizes":[],"default_left":[0,0,0,0,0,0,0,0,0,0,0,0,0,0,0],"id":25,"left_children":[1,3,5,7,9,11,13,-1,-1,-1,-1,-1,-1,-1,-1],"loss_changes":[4.8020875E-1,1.422008E0,6.789899E-1,2.4437094E0,2.6177654E0,1.1968648E0,2.032812E0,0E0,0E0,0E0,0E0,0E0,0E0,0E0,0E0],"parents":[2147483647,0,0,1,1,2,2,3,3,4,4,5,5,6,6],"right_children":[2,4,6,8,10,12,14,-1,-1,-1,-1,-1,-1,-1,-1],"split_conditions":[1E0,-7.0979637E-1,1.5786308E0,-7.9569805E-1,1E0,1.5649737E0,1.5926651E0,5.725087E-3,4.4484504E-2,-3.889268E-3,1.5204402E-2,-7.9359027E-4,4.443751E-2,-6.816918E-2,-5.4994104E-3],"split_indices":[2,15,15,15,6,15,15,0,0,0,0,0,0,0,0],"split_type":[0,0,0,0,0,0,0,0,0,0,0,0,0,0,0],"sum_hessian":[1.9643498E4,6.622215E3,1.3021284E4,1.9320018E3,4.690213E3,1.2474257E4,5.470265E2,1.7733749E3,1.5862701E2,3.917337E3,7.7287604E2,1.2422381E4,5.1876087E1,5.0434025E1,4.9659247E2],"tree_param":{"num_deleted":"0","num_feature":"16","num_nodes":"15","size_leaf_vector":"1"}},{"base_weights":[-5.6085455E-6,-8.297942E-3,4.2184927E-3,-2.1895226E-3,-9.0815425E-2,1.0567133E-2,-2.1439662E-2,3.328818E-3,-1.27271E-2,-6.5016545E-2,-1.2230519E-2,2.9429845E-3,1.268796E-1,-7.459778E-4,-3.0721186E-2],"categories":[],"categories_nodes":[],"categories_segments":[],"categories_sizes":[],"default_left":[0,0,0,0,0,0,0,0,0,0,0,0,0,0,0],"id":26,"left_children":[1,3,5,7,9,11,13,-1,-1,-1,-1,-1,-1,-1,-1],"loss_changes":[6.809835E-1,3.3069522E0,2.0983346E0,3.2664447E0,2.8405397E0,3.220015E0,3.9206781E0,0E0,0E0,0E0,0E0,0E0,0E0,0E0,0E0],"parents":[2147483647,0,0,1,1,2,2,3,3,4,4,5,5,6,6],"right_children":[2,4,6,8,10,12,14,-1,-1,-1,-1,-1,-1,-1,-1],"split_conditions":[-5.4436594E-1,-6.2766206E-1,1E0,6E0,-8.43396E-1,1.7579172E0,1.0948373E0,3.328818E-3,-1.27271E-2,-6.5016545E-2,-1.2230519E-2,2.9429845E-3,1.268796E-1,-7.459778E-4,-3.0721186E-2],"split_indices":[15,15,9,1,14,14,14,0,0,0,0,0,0,0,0],"split_type":[0,0,0,0,0,0,0,0,0,0,0,0,0,0,0],"sum_hessian":[1.943931E4,6.5601387E3,1.2879173E4,6.108946E3,4.5119278E2,1.0325022E4,2.5541497E3,4.5930234E3,1.5159227E3,1.2738704E2,3.2380576E2,1.0307121E4,1.7902182E1,2.0704946E3,4.8365497E2],"tree_param":{"num_deleted":"0","num_feature":"16","num_nodes":"15","size_leaf_vector":"1"}},{"base_weights":[-1.4881059E-6,-2.9235354E-3,1.1583297E-2,-3.0611213E-2,9.83606E-4,5.624198E-2,-1.0951006E-2,4.178886E-2,-1.1605261E-2,-1.8018684E-3,4.4562123E-3,2.5317218E-2,-8.44588E-3,-4.2623095E-3,9.7058795E-2],"categories":[],"categories_nodes":[],"categories_segments":[],"categories_sizes":[],"default_left":[0,0,0,0,0,0,0,0,0,0,0,0,0,0,0],"id":27,"left_children":[1,3,5,7,9,11,13,-1,-1,-1,-1,-1,-1,-1,-1],"loss_changes":[6.60742E-1,1.6862637E0,3.9572093E0,2.6494346E0,1.3245236E0,3.1350875E0,2.8519397E0,0E0,0E0,0E0,0E0,0E0,0E0,0E0,0E0],"parents":[2147483647,0,0,1,1,2,2,3,3,4,4,5,5,6,6],"right_children":[2,4,6,8,10,12,14,-1,-1,-1,-1,-1,-1,-1,-1],"split_conditions":[1E0,1E0,1E0,-1.557482E0,2E0,8.605953E-1,1.7256362E0,4.178886E-2,-1.1605261E-2,-1.8018684E-3,4.4562123E-3,2.5317218E-2,-8.44588E-3,-4.2623095E-3,9.7058795E-2],"split_indices":[10,1,2,14,2,15,15,0,0,0,0,0,0,0,0],"split_type":[0,0,0,0,0,0,0,0,0,0,0,0,0,0,0],"sum_hessian":[1.951696E4,1.5586343E4,3.9306184E3,1.926624E3,1.3659718E4,1.3176975E3,2.612921E3,8.6652176E1,1.8399719E3,9.083013E3,4.576705E3,9.8812305E2,3.2957452E2,2.5886736E3,2.4247293E1],"tree_param":{"num_deleted":"0","num_feature":"16","num_nodes":"15","size_leaf_vector":"1"}},{"base_weights":[1.4394301E-5,1.267676E-1,-1.8114061E-4,-1.5980562E-2,6.068479E-1,-4.153529E-2,4.2977458E-4,7.527915E-2,-6.7928456E-2,2.647255E-1,-3.7348464E-2,-3.0078623E-2,5.337515E-2,-6.753421E-4,4.1145533E-3],"categories":[],"categories_nodes":[],"categories_segments":[],"categories_sizes":[],"default_left":[0,0,0,0,0,0,0,0,0,0,0,0,0,0,0],"id":28,"left_children":[1,3,5,7,9,11,13,-1,-1,-1,-1,-1,-1,-1,-1],"loss_changes":[4.868885E-1,2.0833054E0,4.955576E-1,1.421628E0,1.5126753E0,3.6979725E0,6.885081E-1,0E0,0E0,0E0,0E0,0E0,0E0,0E0,0E0],"parents":[2147483647,0,0,1,1,2,2,3,3,4,4,5,5,6,6],"right_children":[2,4,6,8,10,12,14,-1,-1,-1,-1,-1,-1,-1,-1],"split_conditions":[-1.7615066E0,1E0,-1.6594943E0,2.5597203E-1,2E0,1E0,1E0,7.527915E-2,-6.7928456E-2,2.647255E-1,-3.7348464E-2,-3.0078623E-2,5.337515E-2,-6.753421E-4,4.1145533E-3],"split_indices":[14,9,14,15,2,10,3,0,0,0,0,0,0,0,0],"split_type":[0,0,0,0,0,0,0,0,0,0,0,0,0,0,0],"sum_hessian":[1.9642812E4,2.9258133E1,1.9613553E4,2.329751E1,5.960623E0,2.8455316E2,1.9329E4,1.0186098E1,1.3111411E1,4.179291E0,1.781332E0,2.2490924E2,5.9643925E1,1.6084146E4,3.2448542E3],"tree_param":{"num_deleted":"0","num_feature":"16","num_nodes":"15","size_leaf_vector":"1"}},{"base_weights":[-1.3052867E-5,-1.545707E-1,2.0726252E-4,-4.75089E-1,-1.7614294E-2,3.0468127E-3,-1.1107786E-2,-1.707201E-1,-3.365472E-2,4.655605E-2,-8.109124E-2,2.4017317E-3,-6.7186044E-3,-7.266426E-2,-2.227644E-3],"categories":[],"categories_nodes":[],"categories_segments":[],"categories_sizes":[],"default_left":[0,0,0,0,0,0,0,0,0,0,0,0,0,0,0],"id":29,"left_children":[1,3,5,7,9,11,13,-1,-1,-1,-1,-1,-1,-1,-1],"loss_changes":[6.6195464E-1,1.2063172E0,6.2374216E-1,2.1737778E-1,9.338363E-1,1.9581263E0,3.3124378E0,0E0,0E0,0E0,0E0,0E0,0E0,0E0,0E0],"parents":[2147483647,0,0,1,1,2,2,3,3,4,4,5,5,6,6],"right_children":[2,4,6,8,10,12,14,-1,-1,-1,-1,-1,-1,-1,-1],"split_conditions":[-1.7615066E0,-2.0019771E-1,1E0,2E0,8.7463844E-1,1.1627133E0,-1.6594943E0,-1.707201E-1,-3.365472E-2,4.655605E-2,-8.109124E-2,2.4017317E-3,-6.7186044E-3,-7.266426E-2,-2.227644E-3],"split_indices":[14,15,10,2,15,15,14,0,0,0,0,0,0,0,0],"split_type":[0,0,0,0,0,0,0,0,0,0,0,0,0,0,0],"sum_hessian":[1.9437908E4,2.667124E1,1.9411238E4,7.2455688E0,1.942567E1,1.5517738E4,3.893499E3,5.303975E0,1.9415934E0,1.1765637E1,7.660033E0,1.2987095E4,2.5306438E3,6.0047703E1,3.8334514E3],"tree_param":{"num_deleted":"0","num_feature":"16","num_nodes":"15","size_leaf_vector":"1"}}]},"name":"gbtree"},"learner_model_param":{"base_score":"[-1.488328E-3,1.1140823E-2,-9.652734E-3]","boost_from_average":"1","num_class":"3","num_feature":"16","num_target":"1"},"objective":{"name":"multi:softprob","softmax_multiclass_param":{"num_class":"3"}}},"version":[3,2,0]}